
    // !!! This file is generated using emlearn !!!

    #include <eml_trees.h>
    

EmlTreesNode myinlinetree_nodes[194] = {
  { 322, 10005.25048828125, 1, 11 },
  { 1022, 159971592.0, 2, 10 },
  { 957, 3042557.625, 3, 8 },
  { 935, 2140415.625, 4, 9 },
  { 701, 67865.994140625, 5, 8 },
  { 986, 17260248.0, 6, 7 },
  { -1, 1, -1, -1 },
  { 880, 27235.5732421875, 8, 6 },
  { -1, 5, -1, -1 },
  { -1, 2, -1, -1 },
  { 656, 109345.83203125, 8, 6 },
  { 263, 3034119.125, 12, 190 },
  { 667, 313752.078125, 13, 37 },
  { 945, 24275320.0, 14, 35 },
  { 1, 6786929.25, 6, 15 },
  { 4, 152336416.0, 16, 26 },
  { 693, 251465.0703125, 17, 25 },
  { 14, 14372053.5, 18, 23 },
  { 885, 75739.146484375, 8, 19 },
  { 122, 131599.015625, 20, 22 },
  { 88, 450487.609375, 9, 21 },
  { -1, 4, -1, -1 },
  { -1, 8, -1, -1 },
  { 9, 497230560.0, 8, 24 },
  { 569, 1897352.25, 9, 6 },
  { -1, 0, -1, -1 },
  { 6, 205814688.0, 27, 34 },
  { 523, 100348196.0, 28, 32 },
  { 987, 8214970.75, 22, 29 },
  { 891, 89049.83984375, 6, 30 },
  { 729, 97200.53515625, 31, 8 },
  { -1, 9, -1, -1 },
  { 676, 325453.484375, 9, 33 },
  { 790, 45192.732421875, 25, 6 },
  { 930, 4549267.46875, 8, 22 },
  { 633, 1343361.375, 25, 36 },
  { 685, 324867.15625, 22, 8 },
  { 515, 2782375168.0, 38, 175 },
  { 459, 14243293.5, 39, 142 },
  { 1022, 1008278848.0, 40, 89 },
  { 1012, 255708736.0, 41, 79 },
  { 172, 189984.2890625, 42, 57 },
  { 1007, 160675080.0, 43, 9 },
  { 181, 147456.609375, 44, 56 },
  { 520, 23755221.0, 22, 45 },
  { 83, 1610906.125, 46, 6 },
  { 838, 389091.03125, 47, 53 },
  { 568, 5269530.0, 48, 52 },
  { 43, 1732310.78125, 49, 50 },
  { -1, 7, -1, -1 },
  { 112, 252350.046875, 51, 8 },
  { -1, 3, -1, -1 },
  { 541, 63620866.0, 31, 8 },
  { 370, 67807.19921875, 9, 54 },
  { 947, 2501399.8125, 25, 55 },
  { 989, 28021436.0, 22, 49 },
  { 855, 1259912.125, 8, 6 },
  { 109, 2278898.0, 58, 70 },
  { 644, 1287819.625, 59, 66 },
  { 500, 11606618.0, 60, 61 },
  { -1, 6, -1, -1 },
  { 96, 794360.34375, 62, 63 },
  { 957, 1546428.9375, 25, 51 },
  { 572, 44053690.0, 64, 9 },
  { 125, 627348.875, 31, 65 },
  { 337, 401564.0, 21, 8 },
  { 789, 702317.1875, 67, 68 },
  { 948, 28407503.0, 31, 25 },
  { 515, 335739488.0, 69, 9 },
  { 1010, 318478664.0, 31, 22 },
  { 983, 35368282.0, 71, 74 },
  { 70, 3899300.0, 72, 60 },
  { 877, 2417872.6875, 8, 73 },
  { 279, 99971.20166015625, 25, 22 },
  { 14, 54985506.0, 75, 77 },
  { 568, 9914050.25, 76, 51 },
  { 841, 4402393.75, 9, 8 },
  { 924, 17018263.0, 78, 25 },
  { 472, 17172867.5, 31, 21 },
  { 364, 334166.875, 80, 82 },
  { 835, 192061.953125, 81, 9 },
  { 464, 9839464.5, 21, 6 },
  { 301, 78568.5390625, 83, 84 },
  { 461, 6570835.0, 25, 31 },
  { 1006, 215694568.0, 9, 85 },
  { 673, 1305091.90625, 8, 86 },
  { 896, 1998018.75, 22, 87 },
  { 750, 569361.671875, 31, 88 },
  { 844, 1909825.0, 21, 49 },
  { 77, 1293628.625, 90, 96 },
  { 510, 560885216.0, 91, 92 },
  { 826, 223535.7734375, 21, 25 },
  { 687, 2885991.625, 93, 95 },
  { 154, 821768.1875, 94, 21 },
  { 990, 167435480.0, 22, 49 },
  { 210, 261877.671875, 31, 49 },
  { 1, 753456832.0, 97, 126 },
  { 507, 237615240.0, 98, 110 },
  { 905, 6084852.0, 99, 106 },
  { 145, 344523.4375, 100, 102 },
  { 990, 77579482.0, 101, 22 },
  { 255, 60118.671875, 6, 31 },
  { 3, 862049216.0, 103, 22 },
  { 1019, 527635040.0, 104, 60 },
  { 3, 126830508.0, 31, 105 },
  { 520, 588805872.0, 51, 8 },
  { 115, 3005706.25, 22, 107 },
  { 453, 9450536.75, 108, 21 },
  { 532, 87951036.0, 51, 109 },
  { 288, 277464.41796875, 60, 49 },
  { 731, 59848.453125, 111, 112 },
  { 406, 5363369.0, 25, 60 },
  { 1019, 412415552.0, 9, 113 },
  { 1013, 1054557664.0, 114, 9 },
  { 703, 5252922.75, 115, 51 },
  { 691, 2324712.5, 116, 123 },
  { 866, 2409831.375, 117, 122 },
  { 687, 2323551.375, 118, 25 },
  { 639, 5014996.75, 119, 22 },
  { 75, 3283629.75, 21, 120 },
  { 878, 1443934.75, 60, 121 },
  { 453, 28204125.75, 6, 31 },
  { 817, 1119824.1875, 51, 9 },
  { 510, 1388063232.0, 31, 124 },
  { 208, 739316.890625, 25, 125 },
  { 361, 2972609.46875, 22, 8 },
  { 787, 1285518.375, 127, 136 },
  { 504, 88852788.0, 128, 129 },
  { 138, 548936.109375, 22, 21 },
  { 969, 68627604.0, 130, 8 },
  { 957, 12972178.5, 131, 132 },
  { 56, 5511623.625, 51, 60 },
  { 549, 26635628.0, 9, 133 },
  { 934, 9899293.0, 31, 134 },
  { 905, 6988098.25, 135, 21 },
  { 538, 71808852.0, 25, 49 },
  { 380, 4011843.75, 137, 141 },
  { 518, 405170640.0, 138, 49 },
  { 999, 80442308.0, 139, 140 },
  { 490, 20655573.0, 31, 49 },
  { 233, 4150232.4375, 22, 51 },
  { 131, 8998276.25, 22, 21 },
  { 987, 71931976.0, 143, 150 },
  { 588, 9430623.0, 144, 145 },
  { 306, 76535.310546875, 25, 31 },
  { 594, 44471868.0, 60, 146 },
  { 894, 14317534.0, 147, 60 },
  { 564, 56337988.0, 9, 148 },
  { 978, 68485016.0, 21, 149 },
  { 91, 4897805.875, 25, 31 },
  { 75, 33345738.0, 151, 174 },
  { 710, 1068547.84375, 152, 157 },
  { 520, 459762112.0, 153, 25 },
  { 906, 7262315.5, 154, 60 },
  { 1019, 762935552.0, 155, 31 },
  { 341, 485886.03125, 6, 156 },
  { 1014, 151839736.0, 21, 25 },
  { 514, 3546502656.0, 158, 169 },
  { 22, 41670788.0, 159, 160 },
  { 896, 3602883.875, 9, 31 },
  { 970, 77099852.0, 161, 167 },
  { 433, 23284605.0, 162, 31 },
  { 301, 417194.34375, 163, 164 },
  { 585, 24827707.0, 60, 60 },
  { 1022, 771722240.0, 8, 165 },
  { 565, 49023100.0, 9, 166 },
  { 985, 247940528.0, 49, 51 },
  { 467, 57182010.0, 51, 168 },
  { 292, 723376.296875, 22, 49 },
  { 620, 17001448.0, 170, 21 },
  { 828, 3389471.125, 171, 9 },
  { 970, 69059488.0, 172, 49 },
  { 238, 286935.931640625, 60, 173 },
  { 380, 2164732.9375, 51, 8 },
  { 403, 3389371.75, 22, 60 },
  { 24, 46054284.0, 176, 185 },
  { 453, 31354201.0, 177, 182 },
  { 944, 7033988.75, 178, 180 },
  { 288, 55443.052734375, 25, 179 },
  { 603, 7885888.5, 31, 49 },
  { 951, 54270894.0, 21, 181 },
  { 49, 20676150.0, 21, 51 },
  { 333, 2964155.75, 60, 183 },
  { 107, 4551549.25, 22, 184 },
  { 473, 95549288.0, 51, 49 },
  { 812, 786508.625, 25, 186 },
  { 510, 2044677056.0, 51, 187 },
  { 962, 93495932.0, 188, 189 },
  { 653, 32813311.0, 49, 51 },
  { 426, 38489066.0, 21, 60 },
  { 511, 539123440.0, 191, 192 },
  { 693, 43955500.5, 51, 22 },
  { 502, 364841808.0, 193, 21 },
  { 206, 1892500.1875, 51, 49 } 
};

int32_t myinlinetree_tree_roots[1] = { 0 };

EmlTrees myinlinetree = {
        194,
        myinlinetree_nodes,	  
        1,
        myinlinetree_tree_roots,
    };

static inline int32_t myinlinetree_predict_tree_0(const float *features, int32_t features_length) {
          if (features[322] < 10005.25048828125) {
              if (features[1022] < 159971592.0) {
                  if (features[957] < 3042557.625) {
                      if (features[935] < 2140415.625) {
                          if (features[701] < 67865.994140625) {
                              if (features[986] < 17260248.0) {
                                  return 1;
                              } else {
                                  if (features[880] < 27235.5732421875) {
                                      return 5;
                                  } else {
                                      return 1;
                                  }
                              }
                          } else {
                              return 5;
                          }
                      } else {
                          return 2;
                      }
                  } else {
                      return 5;
                  }
              } else {
                  if (features[656] < 109345.83203125) {
                      return 5;
                  } else {
                      return 1;
                  }
              }
          } else {
              if (features[263] < 3034119.125) {
                  if (features[667] < 313752.078125) {
                      if (features[945] < 24275320.0) {
                          if (features[1] < 6786929.25) {
                              return 1;
                          } else {
                              if (features[4] < 152336416.0) {
                                  if (features[693] < 251465.0703125) {
                                      if (features[14] < 14372053.5) {
                                          if (features[885] < 75739.146484375) {
                                              return 5;
                                          } else {
                                              if (features[122] < 131599.015625) {
                                                  if (features[88] < 450487.609375) {
                                                      return 2;
                                                  } else {
                                                      return 4;
                                                  }
                                              } else {
                                                  return 8;
                                              }
                                          }
                                      } else {
                                          if (features[9] < 497230560.0) {
                                              return 5;
                                          } else {
                                              if (features[569] < 1897352.25) {
                                                  return 2;
                                              } else {
                                                  return 1;
                                              }
                                          }
                                      }
                                  } else {
                                      return 0;
                                  }
                              } else {
                                  if (features[6] < 205814688.0) {
                                      if (features[523] < 100348196.0) {
                                          if (features[987] < 8214970.75) {
                                              return 8;
                                          } else {
                                              if (features[891] < 89049.83984375) {
                                                  return 1;
                                              } else {
                                                  if (features[729] < 97200.53515625) {
                                                      return 9;
                                                  } else {
                                                      return 5;
                                                  }
                                              }
                                          }
                                      } else {
                                          if (features[676] < 325453.484375) {
                                              return 2;
                                          } else {
                                              if (features[790] < 45192.732421875) {
                                                  return 0;
                                              } else {
                                                  return 1;
                                              }
                                          }
                                      }
                                  } else {
                                      if (features[930] < 4549267.46875) {
                                          return 5;
                                      } else {
                                          return 8;
                                      }
                                  }
                              }
                          }
                      } else {
                          if (features[633] < 1343361.375) {
                              return 0;
                          } else {
                              if (features[685] < 324867.15625) {
                                  return 8;
                              } else {
                                  return 5;
                              }
                          }
                      }
                  } else {
                      if (features[515] < 2782375168.0) {
                          if (features[459] < 14243293.5) {
                              if (features[1022] < 1008278848.0) {
                                  if (features[1012] < 255708736.0) {
                                      if (features[172] < 189984.2890625) {
                                          if (features[1007] < 160675080.0) {
                                              if (features[181] < 147456.609375) {
                                                  if (features[520] < 23755221.0) {
                                                      return 8;
                                                  } else {
                                                      if (features[83] < 1610906.125) {
                                                          if (features[838] < 389091.03125) {
                                                              if (features[568] < 5269530.0) {
                                                                  if (features[43] < 1732310.78125) {
                                                                      return 7;
                                                                  } else {
                                                                      if (features[112] < 252350.046875) {
                                                                          return 3;
                                                                      } else {
                                                                          return 5;
                                                                      }
                                                                  }
                                                              } else {
                                                                  if (features[541] < 63620866.0) {
                                                                      return 9;
                                                                  } else {
                                                                      return 5;
                                                                  }
                                                              }
                                                          } else {
                                                              if (features[370] < 67807.19921875) {
                                                                  return 2;
                                                              } else {
                                                                  if (features[947] < 2501399.8125) {
                                                                      return 0;
                                                                  } else {
                                                                      if (features[989] < 28021436.0) {
                                                                          return 8;
                                                                      } else {
                                                                          return 7;
                                                                      }
                                                                  }
                                                              }
                                                          }
                                                      } else {
                                                          return 1;
                                                      }
                                                  }
                                              } else {
                                                  if (features[855] < 1259912.125) {
                                                      return 5;
                                                  } else {
                                                      return 1;
                                                  }
                                              }
                                          } else {
                                              return 2;
                                          }
                                      } else {
                                          if (features[109] < 2278898.0) {
                                              if (features[644] < 1287819.625) {
                                                  if (features[500] < 11606618.0) {
                                                      return 6;
                                                  } else {
                                                      if (features[96] < 794360.34375) {
                                                          if (features[957] < 1546428.9375) {
                                                              return 0;
                                                          } else {
                                                              return 3;
                                                          }
                                                      } else {
                                                          if (features[572] < 44053690.0) {
                                                              if (features[125] < 627348.875) {
                                                                  return 9;
                                                              } else {
                                                                  if (features[337] < 401564.0) {
                                                                      return 4;
                                                                  } else {
                                                                      return 5;
                                                                  }
                                                              }
                                                          } else {
                                                              return 2;
                                                          }
                                                      }
                                                  }
                                              } else {
                                                  if (features[789] < 702317.1875) {
                                                      if (features[948] < 28407503.0) {
                                                          return 9;
                                                      } else {
                                                          return 0;
                                                      }
                                                  } else {
                                                      if (features[515] < 335739488.0) {
                                                          if (features[1010] < 318478664.0) {
                                                              return 9;
                                                          } else {
                                                              return 8;
                                                          }
                                                      } else {
                                                          return 2;
                                                      }
                                                  }
                                              }
                                          } else {
                                              if (features[983] < 35368282.0) {
                                                  if (features[70] < 3899300.0) {
                                                      if (features[877] < 2417872.6875) {
                                                          return 5;
                                                      } else {
                                                          if (features[279] < 99971.20166015625) {
                                                              return 0;
                                                          } else {
                                                              return 8;
                                                          }
                                                      }
                                                  } else {
                                                      return 6;
                                                  }
                                              } else {
                                                  if (features[14] < 54985506.0) {
                                                      if (features[568] < 9914050.25) {
                                                          if (features[841] < 4402393.75) {
                                                              return 2;
                                                          } else {
                                                              return 5;
                                                          }
                                                      } else {
                                                          return 3;
                                                      }
                                                  } else {
                                                      if (features[924] < 17018263.0) {
                                                          if (features[472] < 17172867.5) {
                                                              return 9;
                                                          } else {
                                                              return 4;
                                                          }
                                                      } else {
                                                          return 0;
                                                      }
                                                  }
                                              }
                                          }
                                      }
                                  } else {
                                      if (features[364] < 334166.875) {
                                          if (features[835] < 192061.953125) {
                                              if (features[464] < 9839464.5) {
                                                  return 4;
                                              } else {
                                                  return 1;
                                              }
                                          } else {
                                              return 2;
                                          }
                                      } else {
                                          if (features[301] < 78568.5390625) {
                                              if (features[461] < 6570835.0) {
                                                  return 0;
                                              } else {
                                                  return 9;
                                              }
                                          } else {
                                              if (features[1006] < 215694568.0) {
                                                  return 2;
                                              } else {
                                                  if (features[673] < 1305091.90625) {
                                                      return 5;
                                                  } else {
                                                      if (features[896] < 1998018.75) {
                                                          return 8;
                                                      } else {
                                                          if (features[750] < 569361.671875) {
                                                              return 9;
                                                          } else {
                                                              if (features[844] < 1909825.0) {
                                                                  return 4;
                                                              } else {
                                                                  return 7;
                                                              }
                                                          }
                                                      }
                                                  }
                                              }
                                          }
                                      }
                                  }
                              } else {
                                  if (features[77] < 1293628.625) {
                                      if (features[510] < 560885216.0) {
                                          if (features[826] < 223535.7734375) {
                                              return 4;
                                          } else {
                                              return 0;
                                          }
                                      } else {
                                          if (features[687] < 2885991.625) {
                                              if (features[154] < 821768.1875) {
                                                  if (features[990] < 167435480.0) {
                                                      return 8;
                                                  } else {
                                                      return 7;
                                                  }
                                              } else {
                                                  return 4;
                                              }
                                          } else {
                                              if (features[210] < 261877.671875) {
                                                  return 9;
                                              } else {
                                                  return 7;
                                              }
                                          }
                                      }
                                  } else {
                                      if (features[1] < 753456832.0) {
                                          if (features[507] < 237615240.0) {
                                              if (features[905] < 6084852.0) {
                                                  if (features[145] < 344523.4375) {
                                                      if (features[990] < 77579482.0) {
                                                          if (features[255] < 60118.671875) {
                                                              return 1;
                                                          } else {
                                                              return 9;
                                                          }
                                                      } else {
                                                          return 8;
                                                      }
                                                  } else {
                                                      if (features[3] < 862049216.0) {
                                                          if (features[1019] < 527635040.0) {
                                                              if (features[3] < 126830508.0) {
                                                                  return 9;
                                                              } else {
                                                                  if (features[520] < 588805872.0) {
                                                                      return 3;
                                                                  } else {
                                                                      return 5;
                                                                  }
                                                              }
                                                          } else {
                                                              return 6;
                                                          }
                                                      } else {
                                                          return 8;
                                                      }
                                                  }
                                              } else {
                                                  if (features[115] < 3005706.25) {
                                                      return 8;
                                                  } else {
                                                      if (features[453] < 9450536.75) {
                                                          if (features[532] < 87951036.0) {
                                                              return 3;
                                                          } else {
                                                              if (features[288] < 277464.41796875) {
                                                                  return 6;
                                                              } else {
                                                                  return 7;
                                                              }
                                                          }
                                                      } else {
                                                          return 4;
                                                      }
                                                  }
                                              }
                                          } else {
                                              if (features[731] < 59848.453125) {
                                                  if (features[406] < 5363369.0) {
                                                      return 0;
                                                  } else {
                                                      return 6;
                                                  }
                                              } else {
                                                  if (features[1019] < 412415552.0) {
                                                      return 2;
                                                  } else {
                                                      if (features[1013] < 1054557664.0) {
                                                          if (features[703] < 5252922.75) {
                                                              if (features[691] < 2324712.5) {
                                                                  if (features[866] < 2409831.375) {
                                                                      if (features[687] < 2323551.375) {
                                                                          if (features[639] < 5014996.75) {
                                                                              if (features[75] < 3283629.75) {
                                                                                  return 4;
                                                                              } else {
                                                                                  if (features[878] < 1443934.75) {
                                                                                      return 6;
                                                                                  } else {
                                                                                      if (features[453] < 28204125.75) {
                                                                                          return 1;
                                                                                      } else {
                                                                                          return 9;
                                                                                      }
                                                                                  }
                                                                              }
                                                                          } else {
                                                                              return 8;
                                                                          }
                                                                      } else {
                                                                          return 0;
                                                                      }
                                                                  } else {
                                                                      if (features[817] < 1119824.1875) {
                                                                          return 3;
                                                                      } else {
                                                                          return 2;
                                                                      }
                                                                  }
                                                              } else {
                                                                  if (features[510] < 1388063232.0) {
                                                                      return 9;
                                                                  } else {
                                                                      if (features[208] < 739316.890625) {
                                                                          return 0;
                                                                      } else {
                                                                          if (features[361] < 2972609.46875) {
                                                                              return 8;
                                                                          } else {
                                                                              return 5;
                                                                          }
                                                                      }
                                                                  }
                                                              }
                                                          } else {
                                                              return 3;
                                                          }
                                                      } else {
                                                          return 2;
                                                      }
                                                  }
                                              }
                                          }
                                      } else {
                                          if (features[787] < 1285518.375) {
                                              if (features[504] < 88852788.0) {
                                                  if (features[138] < 548936.109375) {
                                                      return 8;
                                                  } else {
                                                      return 4;
                                                  }
                                              } else {
                                                  if (features[969] < 68627604.0) {
                                                      if (features[957] < 12972178.5) {
                                                          if (features[56] < 5511623.625) {
                                                              return 3;
                                                          } else {
                                                              return 6;
                                                          }
                                                      } else {
                                                          if (features[549] < 26635628.0) {
                                                              return 2;
                                                          } else {
                                                              if (features[934] < 9899293.0) {
                                                                  return 9;
                                                              } else {
                                                                  if (features[905] < 6988098.25) {
                                                                      if (features[538] < 71808852.0) {
                                                                          return 0;
                                                                      } else {
                                                                          return 7;
                                                                      }
                                                                  } else {
                                                                      return 4;
                                                                  }
                                                              }
                                                          }
                                                      }
                                                  } else {
                                                      return 5;
                                                  }
                                              }
                                          } else {
                                              if (features[380] < 4011843.75) {
                                                  if (features[518] < 405170640.0) {
                                                      if (features[999] < 80442308.0) {
                                                          if (features[490] < 20655573.0) {
                                                              return 9;
                                                          } else {
                                                              return 7;
                                                          }
                                                      } else {
                                                          if (features[233] < 4150232.4375) {
                                                              return 8;
                                                          } else {
                                                              return 3;
                                                          }
                                                      }
                                                  } else {
                                                      return 7;
                                                  }
                                              } else {
                                                  if (features[131] < 8998276.25) {
                                                      return 8;
                                                  } else {
                                                      return 4;
                                                  }
                                              }
                                          }
                                      }
                                  }
                              }
                          } else {
                              if (features[987] < 71931976.0) {
                                  if (features[588] < 9430623.0) {
                                      if (features[306] < 76535.310546875) {
                                          return 0;
                                      } else {
                                          return 9;
                                      }
                                  } else {
                                      if (features[594] < 44471868.0) {
                                          return 6;
                                      } else {
                                          if (features[894] < 14317534.0) {
                                              if (features[564] < 56337988.0) {
                                                  return 2;
                                              } else {
                                                  if (features[978] < 68485016.0) {
                                                      return 4;
                                                  } else {
                                                      if (features[91] < 4897805.875) {
                                                          return 0;
                                                      } else {
                                                          return 9;
                                                      }
                                                  }
                                              }
                                          } else {
                                              return 6;
                                          }
                                      }
                                  }
                              } else {
                                  if (features[75] < 33345738.0) {
                                      if (features[710] < 1068547.84375) {
                                          if (features[520] < 459762112.0) {
                                              if (features[906] < 7262315.5) {
                                                  if (features[1019] < 762935552.0) {
                                                      if (features[341] < 485886.03125) {
                                                          return 1;
                                                      } else {
                                                          if (features[1014] < 151839736.0) {
                                                              return 4;
                                                          } else {
                                                              return 0;
                                                          }
                                                      }
                                                  } else {
                                                      return 9;
                                                  }
                                              } else {
                                                  return 6;
                                              }
                                          } else {
                                              return 0;
                                          }
                                      } else {
                                          if (features[514] < 3546502656.0) {
                                              if (features[22] < 41670788.0) {
                                                  if (features[896] < 3602883.875) {
                                                      return 2;
                                                  } else {
                                                      return 9;
                                                  }
                                              } else {
                                                  if (features[970] < 77099852.0) {
                                                      if (features[433] < 23284605.0) {
                                                          if (features[301] < 417194.34375) {
                                                              if (features[585] < 24827707.0) {
                                                                  return 6;
                                                              } else {
                                                                  return 6;
                                                              }
                                                          } else {
                                                              if (features[1022] < 771722240.0) {
                                                                  return 5;
                                                              } else {
                                                                  if (features[565] < 49023100.0) {
                                                                      return 2;
                                                                  } else {
                                                                      if (features[985] < 247940528.0) {
                                                                          return 7;
                                                                      } else {
                                                                          return 3;
                                                                      }
                                                                  }
                                                              }
                                                          }
                                                      } else {
                                                          return 9;
                                                      }
                                                  } else {
                                                      if (features[467] < 57182010.0) {
                                                          return 3;
                                                      } else {
                                                          if (features[292] < 723376.296875) {
                                                              return 8;
                                                          } else {
                                                              return 7;
                                                          }
                                                      }
                                                  }
                                              }
                                          } else {
                                              if (features[620] < 17001448.0) {
                                                  if (features[828] < 3389471.125) {
                                                      if (features[970] < 69059488.0) {
                                                          if (features[238] < 286935.931640625) {
                                                              return 6;
                                                          } else {
                                                              if (features[380] < 2164732.9375) {
                                                                  return 3;
                                                              } else {
                                                                  return 5;
                                                              }
                                                          }
                                                      } else {
                                                          return 7;
                                                      }
                                                  } else {
                                                      return 2;
                                                  }
                                              } else {
                                                  return 4;
                                              }
                                          }
                                      }
                                  } else {
                                      if (features[403] < 3389371.75) {
                                          return 8;
                                      } else {
                                          return 6;
                                      }
                                  }
                              }
                          }
                      } else {
                          if (features[24] < 46054284.0) {
                              if (features[453] < 31354201.0) {
                                  if (features[944] < 7033988.75) {
                                      if (features[288] < 55443.052734375) {
                                          return 0;
                                      } else {
                                          if (features[603] < 7885888.5) {
                                              return 9;
                                          } else {
                                              return 7;
                                          }
                                      }
                                  } else {
                                      if (features[951] < 54270894.0) {
                                          return 4;
                                      } else {
                                          if (features[49] < 20676150.0) {
                                              return 4;
                                          } else {
                                              return 3;
                                          }
                                      }
                                  }
                              } else {
                                  if (features[333] < 2964155.75) {
                                      return 6;
                                  } else {
                                      if (features[107] < 4551549.25) {
                                          return 8;
                                      } else {
                                          if (features[473] < 95549288.0) {
                                              return 3;
                                          } else {
                                              return 7;
                                          }
                                      }
                                  }
                              }
                          } else {
                              if (features[812] < 786508.625) {
                                  return 0;
                              } else {
                                  if (features[510] < 2044677056.0) {
                                      return 3;
                                  } else {
                                      if (features[962] < 93495932.0) {
                                          if (features[653] < 32813311.0) {
                                              return 7;
                                          } else {
                                              return 3;
                                          }
                                      } else {
                                          if (features[426] < 38489066.0) {
                                              return 4;
                                          } else {
                                              return 6;
                                          }
                                      }
                                  }
                              }
                          }
                      }
                  }
              } else {
                  if (features[511] < 539123440.0) {
                      if (features[693] < 43955500.5) {
                          return 3;
                      } else {
                          return 8;
                      }
                  } else {
                      if (features[502] < 364841808.0) {
                          if (features[206] < 1892500.1875) {
                              return 3;
                          } else {
                              return 7;
                          }
                      } else {
                          return 4;
                      }
                  }
              }
          }
        }
        

int32_t myinlinetree_predict(const float *features, int32_t features_length) {

        int32_t votes[10] = {0,};
        int32_t _class = -1;

        _class = myinlinetree_predict_tree_0(features, features_length); votes[_class] += 1;
    
        int32_t most_voted_class = -1;
        int32_t most_voted_votes = 0;
        for (int32_t i=0; i<10; i++) {

            if (votes[i] > most_voted_votes) {
                most_voted_class = i;
                most_voted_votes = votes[i];
            }
        }
        return most_voted_class;
    }
    