
    // !!! This file is generated using emlearn !!!

    #include <eml_trees.h>
    

EmlTreesNode DecisionTreeClassifier_nodes[195] = {
  { 322, 10005.25048828125, 1, 11 },
  { 2, 61081940.0, 2, 10 },
  { 957, 3042557.625, 3, 8 },
  { 722, 54698.19921875, 4, 9 },
  { 726, 81410.171875, 5, 8 },
  { 986, 17260248.0, 6, 7 },
  { -1, 1, -1, -1 },
  { 224, 1682.6176147460938, 8, 6 },
  { -1, 5, -1, -1 },
  { -1, 2, -1, -1 },
  { 95, 92160.07421875, 8, 6 },
  { 249, 3034118.625, 12, 191 },
  { 869, 313752.0, 13, 37 },
  { 945, 24275320.0, 14, 35 },
  { 1, 6786929.25, 6, 15 },
  { 508, 152336416.0, 16, 26 },
  { 693, 251465.0703125, 17, 25 },
  { 14, 14372053.5, 18, 23 },
  { 897, 226795.046875, 8, 19 },
  { 5, 35294041.0, 20, 21 },
  { -1, 4, -1, -1 },
  { 983, 6219645.75, 9, 22 },
  { -1, 8, -1, -1 },
  { 521, 1230592544.0, 8, 24 },
  { 120, 75770.2265625, 9, 6 },
  { -1, 0, -1, -1 },
  { 6, 205814688.0, 27, 34 },
  { 1013, 100348192.0, 28, 32 },
  { 954, 3890832.875, 22, 29 },
  { 910, 381485.6015625, 6, 30 },
  { 994, 204283199.0, 31, 8 },
  { -1, 9, -1, -1 },
  { 518, 376230960.0, 9, 33 },
  { 197, 42735.8857421875, 6, 25 },
  { 881, 594783.015625, 8, 22 },
  { 421, 5293613.375, 25, 36 },
  { 923, 15865617.625, 8, 22 },
  { 1021, 2782375424.0, 38, 176 },
  { 459, 14243293.5, 39, 143 },
  { 514, 1008278784.0, 40, 89 },
  { 524, 255708744.0, 41, 79 },
  { 340, 189984.3125, 42, 57 },
  { 529, 160675064.0, 43, 9 },
  { 331, 147456.640625, 44, 56 },
  { 520, 23755221.0, 22, 45 },
  { 568, 16611970.5, 46, 6 },
  { 838, 389091.03125, 47, 53 },
  { 534, 48328300.0, 48, 50 },
  { 25, 763468.78125, 49, 31 },
  { -1, 7, -1, -1 },
  { 744, 21256.6396484375, 51, 52 },
  { -1, 3, -1, -1 },
  { 271, 53649.0595703125, 8, 49 },
  { 885, 896266.6875, 9, 54 },
  { 457, 1102113.46875, 25, 55 },
  { 344, 219875.671875, 49, 22 },
  { 343, 252187.671875, 8, 6 },
  { 403, 2278898.0, 58, 70 },
  { 892, 1287820.0625, 59, 66 },
  { 485, 3308304.875, 60, 61 },
  { -1, 6, -1, -1 },
  { 96, 794360.34375, 62, 63 },
  { 870, 2282570.625, 51, 25 },
  { 518, 121644076.0, 64, 31 },
  { 568, 24779447.0, 65, 9 },
  { 687, 1095754.375, 20, 8 },
  { 747, 702317.3125, 67, 68 },
  { 582, 32220232.0, 31, 25 },
  { 36, 15335372.0, 9, 69 },
  { 818, 4479104.25, 31, 22 },
  { 983, 35368282.0, 71, 74 },
  { 434, 3318941.875, 72, 60 },
  { 216, 102826.09326171875, 25, 73 },
  { 78, 3018414.5, 22, 8 },
  { 498, 54985502.0, 75, 77 },
  { 1001, 51626249.0, 76, 51 },
  { 73, 8476787.0, 8, 9 },
  { 232, 16755.91015625, 31, 78 },
  { 648, 5072096.625, 25, 20 },
  { 364, 334166.875, 80, 82 },
  { 697, 259595.7890625, 81, 9 },
  { 692, 188602.328125, 20, 6 },
  { 301, 78568.5390625, 83, 84 },
  { 23, 62382118.0, 25, 31 },
  { 530, 215694552.0, 9, 85 },
  { 671, 1616469.9375, 8, 86 },
  { 27, 17763416.0, 49, 87 },
  { 104, 1376498.4375, 22, 88 },
  { 838, 3325845.25, 20, 31 },
  { 77, 1293628.625, 90, 97 },
  { 510, 560885216.0, 91, 92 },
  { 420, 200341.9453125, 25, 20 },
  { 154, 821768.1875, 93, 96 },
  { 811, 1775034.5625, 22, 94 },
  { 600, 1868455.125, 49, 95 },
  { 731, 2628370.375, 31, 22 },
  { 185, 466211.609375, 31, 20 },
  { 511, 753456768.0, 98, 127 },
  { 5, 237615216.0, 99, 111 },
  { 905, 6084852.0, 100, 107 },
  { 367, 344523.453125, 101, 103 },
  { 940, 3602825.375, 102, 22 },
  { 980, 48031719.0, 31, 6 },
  { 509, 862049248.0, 104, 22 },
  { 543, 420092864.0, 105, 8 },
  { 523, 20215875.0, 60, 106 },
  { 3, 126830508.0, 31, 51 },
  { 523, 146444384.0, 108, 22 },
  { 486, 32382963.0, 20, 109 },
  { 467, 16027254.0, 60, 110 },
  { 228, 805013.875, 51, 49 },
  { 731, 59848.453125, 112, 113 },
  { 390, 2383485.125, 25, 60 },
  { 517, 412415424.0, 9, 114 },
  { 1013, 1054557664.0, 115, 9 },
  { 703, 5252922.75, 116, 51 },
  { 691, 2324712.5, 117, 124 },
  { 660, 4295854.75, 118, 123 },
  { 714, 1108510.4375, 119, 25 },
  { 935, 6480869.5, 20, 120 },
  { 622, 3414133.0, 22, 121 },
  { 70, 3456394.25, 60, 122 },
  { 256, 76789.451171875, 6, 31 },
  { 401, 841651.71875, 9, 51 },
  { 530, 440001616.0, 31, 125 },
  { 3, 887893952.0, 22, 126 },
  { 878, 14985122.5, 25, 8 },
  { 787, 1285518.375, 128, 137 },
  { 504, 88852788.0, 129, 130 },
  { 371, 531341.9375, 22, 20 },
  { 457, 18794444.0, 131, 8 },
  { 579, 12972178.5, 132, 133 },
  { 240, 178878.85546875, 60, 51 },
  { 898, 5397455.0, 134, 20 },
  { 987, 28207537.0, 9, 135 },
  { 110, 2074264.5, 31, 136 },
  { 476, 13174851.0, 25, 49 },
  { 380, 4011843.75, 138, 142 },
  { 1018, 405170672.0, 139, 49 },
  { 2, 1359054784.0, 140, 141 },
  { 55, 6756035.75, 31, 49 },
  { 705, 6830016.25, 22, 51 },
  { 503, 203692712.0, 22, 20 },
  { 987, 71931976.0, 144, 151 },
  { 948, 9430622.5, 145, 146 },
  { 561, 15093748.25, 25, 31 },
  { 594, 44471868.0, 60, 147 },
  { 50, 40386812.0, 148, 60 },
  { 805, 221334.701171875, 25, 149 },
  { 542, 64106270.0, 20, 150 },
  { 803, 1864994.8125, 31, 9 },
  { 437, 33345739.0, 152, 175 },
  { 710, 1068547.84375, 153, 158 },
  { 520, 459762112.0, 154, 25 },
  { 106, 3919530.125, 155, 60 },
  { 507, 515923936.0, 156, 31 },
  { 834, 1153915.59375, 6, 157 },
  { 908, 7212819.25, 20, 25 },
  { 1022, 3546502656.0, 159, 170 },
  { 22, 41670788.0, 160, 161 },
  { 1015, 738854336.0, 31, 9 },
  { 970, 77099852.0, 162, 168 },
  { 440, 17155653.0, 163, 31 },
  { 418, 5388267.0, 164, 167 },
  { 693, 928445.0625, 8, 165 },
  { 742, 1517508.375, 9, 166 },
  { 929, 8435663.75, 51, 49 },
  { 585, 24827707.0, 60, 60 },
  { 573, 34569561.0, 169, 51 },
  { 810, 3039148.8125, 22, 49 },
  { 620, 17001448.0, 171, 20 },
  { 316, 1337260.5, 172, 9 },
  { 370, 2584759.75, 173, 49 },
  { 888, 4197123.3125, 51, 174 },
  { 460, 44414629.0, 60, 8 },
  { 423, 10937007.5, 22, 60 },
  { 24, 46054284.0, 177, 186 },
  { 52, 29822892.0, 178, 183 },
  { 944, 7033988.75, 179, 181 },
  { 724, 305812.8203125, 25, 180 },
  { 664, 7990636.25, 31, 49 },
  { 175, 8705637.0, 182, 51 },
  { 767, 24047492.0, 20, 51 },
  { 545, 76290268.0, 60, 184 },
  { 440, 9808291.5, 22, 185 },
  { 980, 187199888.0, 49, 51 },
  { 212, 388515.28125, 25, 187 },
  { 2, 2044676864.0, 51, 188 },
  { 962, 93495932.0, 189, 190 },
  { 278, 415024.078125, 51, 49 },
  { 390, 14926642.5, 20, 60 },
  { 1, 539123568.0, 192, 193 },
  { 490, 244255396.0, 51, 22 },
  { 10, 364841776.0, 194, 20 },
  { 225, 1529656.875, 51, 49 } 
};

int32_t DecisionTreeClassifier_tree_roots[1] = { 0 };

EmlTrees DecisionTreeClassifier = {
        195,
        DecisionTreeClassifier_nodes,	  
        1,
        DecisionTreeClassifier_tree_roots,
    };

static inline int32_t DecisionTreeClassifier_predict_tree_0(const float *features, int32_t features_length) {
          if (features[322] < 10005.25048828125) {
              if (features[2] < 61081940.0) {
                  if (features[957] < 3042557.625) {
                      if (features[722] < 54698.19921875) {
                          if (features[726] < 81410.171875) {
                              if (features[986] < 17260248.0) {
                                  return 1;
                              } else {
                                  if (features[224] < 1682.6176147460938) {
                                      return 5;
                                  } else {
                                      return 1;
                                  }
                              }
                          } else {
                              return 5;
                          }
                      } else {
                          return 2;
                      }
                  } else {
                      return 5;
                  }
              } else {
                  if (features[95] < 92160.07421875) {
                      return 5;
                  } else {
                      return 1;
                  }
              }
          } else {
              if (features[249] < 3034118.625) {
                  if (features[869] < 313752.0) {
                      if (features[945] < 24275320.0) {
                          if (features[1] < 6786929.25) {
                              return 1;
                          } else {
                              if (features[508] < 152336416.0) {
                                  if (features[693] < 251465.0703125) {
                                      if (features[14] < 14372053.5) {
                                          if (features[897] < 226795.046875) {
                                              return 5;
                                          } else {
                                              if (features[5] < 35294041.0) {
                                                  return 4;
                                              } else {
                                                  if (features[983] < 6219645.75) {
                                                      return 2;
                                                  } else {
                                                      return 8;
                                                  }
                                              }
                                          }
                                      } else {
                                          if (features[521] < 1230592544.0) {
                                              return 5;
                                          } else {
                                              if (features[120] < 75770.2265625) {
                                                  return 2;
                                              } else {
                                                  return 1;
                                              }
                                          }
                                      }
                                  } else {
                                      return 0;
                                  }
                              } else {
                                  if (features[6] < 205814688.0) {
                                      if (features[1013] < 100348192.0) {
                                          if (features[954] < 3890832.875) {
                                              return 8;
                                          } else {
                                              if (features[910] < 381485.6015625) {
                                                  return 1;
                                              } else {
                                                  if (features[994] < 204283199.0) {
                                                      return 9;
                                                  } else {
                                                      return 5;
                                                  }
                                              }
                                          }
                                      } else {
                                          if (features[518] < 376230960.0) {
                                              return 2;
                                          } else {
                                              if (features[197] < 42735.8857421875) {
                                                  return 1;
                                              } else {
                                                  return 0;
                                              }
                                          }
                                      }
                                  } else {
                                      if (features[881] < 594783.015625) {
                                          return 5;
                                      } else {
                                          return 8;
                                      }
                                  }
                              }
                          }
                      } else {
                          if (features[421] < 5293613.375) {
                              return 0;
                          } else {
                              if (features[923] < 15865617.625) {
                                  return 5;
                              } else {
                                  return 8;
                              }
                          }
                      }
                  } else {
                      if (features[1021] < 2782375424.0) {
                          if (features[459] < 14243293.5) {
                              if (features[514] < 1008278784.0) {
                                  if (features[524] < 255708744.0) {
                                      if (features[340] < 189984.3125) {
                                          if (features[529] < 160675064.0) {
                                              if (features[331] < 147456.640625) {
                                                  if (features[520] < 23755221.0) {
                                                      return 8;
                                                  } else {
                                                      if (features[568] < 16611970.5) {
                                                          if (features[838] < 389091.03125) {
                                                              if (features[534] < 48328300.0) {
                                                                  if (features[25] < 763468.78125) {
                                                                      return 7;
                                                                  } else {
                                                                      return 9;
                                                                  }
                                                              } else {
                                                                  if (features[744] < 21256.6396484375) {
                                                                      return 3;
                                                                  } else {
                                                                      if (features[271] < 53649.0595703125) {
                                                                          return 5;
                                                                      } else {
                                                                          return 7;
                                                                      }
                                                                  }
                                                              }
                                                          } else {
                                                              if (features[885] < 896266.6875) {
                                                                  return 2;
                                                              } else {
                                                                  if (features[457] < 1102113.46875) {
                                                                      return 0;
                                                                  } else {
                                                                      if (features[344] < 219875.671875) {
                                                                          return 7;
                                                                      } else {
                                                                          return 8;
                                                                      }
                                                                  }
                                                              }
                                                          }
                                                      } else {
                                                          return 1;
                                                      }
                                                  }
                                              } else {
                                                  if (features[343] < 252187.671875) {
                                                      return 5;
                                                  } else {
                                                      return 1;
                                                  }
                                              }
                                          } else {
                                              return 2;
                                          }
                                      } else {
                                          if (features[403] < 2278898.0) {
                                              if (features[892] < 1287820.0625) {
                                                  if (features[485] < 3308304.875) {
                                                      return 6;
                                                  } else {
                                                      if (features[96] < 794360.34375) {
                                                          if (features[870] < 2282570.625) {
                                                              return 3;
                                                          } else {
                                                              return 0;
                                                          }
                                                      } else {
                                                          if (features[518] < 121644076.0) {
                                                              if (features[568] < 24779447.0) {
                                                                  if (features[687] < 1095754.375) {
                                                                      return 4;
                                                                  } else {
                                                                      return 5;
                                                                  }
                                                              } else {
                                                                  return 2;
                                                              }
                                                          } else {
                                                              return 9;
                                                          }
                                                      }
                                                  }
                                              } else {
                                                  if (features[747] < 702317.3125) {
                                                      if (features[582] < 32220232.0) {
                                                          return 9;
                                                      } else {
                                                          return 0;
                                                      }
                                                  } else {
                                                      if (features[36] < 15335372.0) {
                                                          return 2;
                                                      } else {
                                                          if (features[818] < 4479104.25) {
                                                              return 9;
                                                          } else {
                                                              return 8;
                                                          }
                                                      }
                                                  }
                                              }
                                          } else {
                                              if (features[983] < 35368282.0) {
                                                  if (features[434] < 3318941.875) {
                                                      if (features[216] < 102826.09326171875) {
                                                          return 0;
                                                      } else {
                                                          if (features[78] < 3018414.5) {
                                                              return 8;
                                                          } else {
                                                              return 5;
                                                          }
                                                      }
                                                  } else {
                                                      return 6;
                                                  }
                                              } else {
                                                  if (features[498] < 54985502.0) {
                                                      if (features[1001] < 51626249.0) {
                                                          if (features[73] < 8476787.0) {
                                                              return 5;
                                                          } else {
                                                              return 2;
                                                          }
                                                      } else {
                                                          return 3;
                                                      }
                                                  } else {
                                                      if (features[232] < 16755.91015625) {
                                                          return 9;
                                                      } else {
                                                          if (features[648] < 5072096.625) {
                                                              return 0;
                                                          } else {
                                                              return 4;
                                                          }
                                                      }
                                                  }
                                              }
                                          }
                                      }
                                  } else {
                                      if (features[364] < 334166.875) {
                                          if (features[697] < 259595.7890625) {
                                              if (features[692] < 188602.328125) {
                                                  return 4;
                                              } else {
                                                  return 1;
                                              }
                                          } else {
                                              return 2;
                                          }
                                      } else {
                                          if (features[301] < 78568.5390625) {
                                              if (features[23] < 62382118.0) {
                                                  return 0;
                                              } else {
                                                  return 9;
                                              }
                                          } else {
                                              if (features[530] < 215694552.0) {
                                                  return 2;
                                              } else {
                                                  if (features[671] < 1616469.9375) {
                                                      return 5;
                                                  } else {
                                                      if (features[27] < 17763416.0) {
                                                          return 7;
                                                      } else {
                                                          if (features[104] < 1376498.4375) {
                                                              return 8;
                                                          } else {
                                                              if (features[838] < 3325845.25) {
                                                                  return 4;
                                                              } else {
                                                                  return 9;
                                                              }
                                                          }
                                                      }
                                                  }
                                              }
                                          }
                                      }
                                  }
                              } else {
                                  if (features[77] < 1293628.625) {
                                      if (features[510] < 560885216.0) {
                                          if (features[420] < 200341.9453125) {
                                              return 0;
                                          } else {
                                              return 4;
                                          }
                                      } else {
                                          if (features[154] < 821768.1875) {
                                              if (features[811] < 1775034.5625) {
                                                  return 8;
                                              } else {
                                                  if (features[600] < 1868455.125) {
                                                      return 7;
                                                  } else {
                                                      if (features[731] < 2628370.375) {
                                                          return 9;
                                                      } else {
                                                          return 8;
                                                      }
                                                  }
                                              }
                                          } else {
                                              if (features[185] < 466211.609375) {
                                                  return 9;
                                              } else {
                                                  return 4;
                                              }
                                          }
                                      }
                                  } else {
                                      if (features[511] < 753456768.0) {
                                          if (features[5] < 237615216.0) {
                                              if (features[905] < 6084852.0) {
                                                  if (features[367] < 344523.453125) {
                                                      if (features[940] < 3602825.375) {
                                                          if (features[980] < 48031719.0) {
                                                              return 9;
                                                          } else {
                                                              return 1;
                                                          }
                                                      } else {
                                                          return 8;
                                                      }
                                                  } else {
                                                      if (features[509] < 862049248.0) {
                                                          if (features[543] < 420092864.0) {
                                                              if (features[523] < 20215875.0) {
                                                                  return 6;
                                                              } else {
                                                                  if (features[3] < 126830508.0) {
                                                                      return 9;
                                                                  } else {
                                                                      return 3;
                                                                  }
                                                              }
                                                          } else {
                                                              return 5;
                                                          }
                                                      } else {
                                                          return 8;
                                                      }
                                                  }
                                              } else {
                                                  if (features[523] < 146444384.0) {
                                                      if (features[486] < 32382963.0) {
                                                          return 4;
                                                      } else {
                                                          if (features[467] < 16027254.0) {
                                                              return 6;
                                                          } else {
                                                              if (features[228] < 805013.875) {
                                                                  return 3;
                                                              } else {
                                                                  return 7;
                                                              }
                                                          }
                                                      }
                                                  } else {
                                                      return 8;
                                                  }
                                              }
                                          } else {
                                              if (features[731] < 59848.453125) {
                                                  if (features[390] < 2383485.125) {
                                                      return 0;
                                                  } else {
                                                      return 6;
                                                  }
                                              } else {
                                                  if (features[517] < 412415424.0) {
                                                      return 2;
                                                  } else {
                                                      if (features[1013] < 1054557664.0) {
                                                          if (features[703] < 5252922.75) {
                                                              if (features[691] < 2324712.5) {
                                                                  if (features[660] < 4295854.75) {
                                                                      if (features[714] < 1108510.4375) {
                                                                          if (features[935] < 6480869.5) {
                                                                              return 4;
                                                                          } else {
                                                                              if (features[622] < 3414133.0) {
                                                                                  return 8;
                                                                              } else {
                                                                                  if (features[70] < 3456394.25) {
                                                                                      return 6;
                                                                                  } else {
                                                                                      if (features[256] < 76789.451171875) {
                                                                                          return 1;
                                                                                      } else {
                                                                                          return 9;
                                                                                      }
                                                                                  }
                                                                              }
                                                                          }
                                                                      } else {
                                                                          return 0;
                                                                      }
                                                                  } else {
                                                                      if (features[401] < 841651.71875) {
                                                                          return 2;
                                                                      } else {
                                                                          return 3;
                                                                      }
                                                                  }
                                                              } else {
                                                                  if (features[530] < 440001616.0) {
                                                                      return 9;
                                                                  } else {
                                                                      if (features[3] < 887893952.0) {
                                                                          return 8;
                                                                      } else {
                                                                          if (features[878] < 14985122.5) {
                                                                              return 0;
                                                                          } else {
                                                                              return 5;
                                                                          }
                                                                      }
                                                                  }
                                                              }
                                                          } else {
                                                              return 3;
                                                          }
                                                      } else {
                                                          return 2;
                                                      }
                                                  }
                                              }
                                          }
                                      } else {
                                          if (features[787] < 1285518.375) {
                                              if (features[504] < 88852788.0) {
                                                  if (features[371] < 531341.9375) {
                                                      return 8;
                                                  } else {
                                                      return 4;
                                                  }
                                              } else {
                                                  if (features[457] < 18794444.0) {
                                                      if (features[579] < 12972178.5) {
                                                          if (features[240] < 178878.85546875) {
                                                              return 6;
                                                          } else {
                                                              return 3;
                                                          }
                                                      } else {
                                                          if (features[898] < 5397455.0) {
                                                              if (features[987] < 28207537.0) {
                                                                  return 2;
                                                              } else {
                                                                  if (features[110] < 2074264.5) {
                                                                      return 9;
                                                                  } else {
                                                                      if (features[476] < 13174851.0) {
                                                                          return 0;
                                                                      } else {
                                                                          return 7;
                                                                      }
                                                                  }
                                                              }
                                                          } else {
                                                              return 4;
                                                          }
                                                      }
                                                  } else {
                                                      return 5;
                                                  }
                                              }
                                          } else {
                                              if (features[380] < 4011843.75) {
                                                  if (features[1018] < 405170672.0) {
                                                      if (features[2] < 1359054784.0) {
                                                          if (features[55] < 6756035.75) {
                                                              return 9;
                                                          } else {
                                                              return 7;
                                                          }
                                                      } else {
                                                          if (features[705] < 6830016.25) {
                                                              return 8;
                                                          } else {
                                                              return 3;
                                                          }
                                                      }
                                                  } else {
                                                      return 7;
                                                  }
                                              } else {
                                                  if (features[503] < 203692712.0) {
                                                      return 8;
                                                  } else {
                                                      return 4;
                                                  }
                                              }
                                          }
                                      }
                                  }
                              }
                          } else {
                              if (features[987] < 71931976.0) {
                                  if (features[948] < 9430622.5) {
                                      if (features[561] < 15093748.25) {
                                          return 0;
                                      } else {
                                          return 9;
                                      }
                                  } else {
                                      if (features[594] < 44471868.0) {
                                          return 6;
                                      } else {
                                          if (features[50] < 40386812.0) {
                                              if (features[805] < 221334.701171875) {
                                                  return 0;
                                              } else {
                                                  if (features[542] < 64106270.0) {
                                                      return 4;
                                                  } else {
                                                      if (features[803] < 1864994.8125) {
                                                          return 9;
                                                      } else {
                                                          return 2;
                                                      }
                                                  }
                                              }
                                          } else {
                                              return 6;
                                          }
                                      }
                                  }
                              } else {
                                  if (features[437] < 33345739.0) {
                                      if (features[710] < 1068547.84375) {
                                          if (features[520] < 459762112.0) {
                                              if (features[106] < 3919530.125) {
                                                  if (features[507] < 515923936.0) {
                                                      if (features[834] < 1153915.59375) {
                                                          return 1;
                                                      } else {
                                                          if (features[908] < 7212819.25) {
                                                              return 4;
                                                          } else {
                                                              return 0;
                                                          }
                                                      }
                                                  } else {
                                                      return 9;
                                                  }
                                              } else {
                                                  return 6;
                                              }
                                          } else {
                                              return 0;
                                          }
                                      } else {
                                          if (features[1022] < 3546502656.0) {
                                              if (features[22] < 41670788.0) {
                                                  if (features[1015] < 738854336.0) {
                                                      return 9;
                                                  } else {
                                                      return 2;
                                                  }
                                              } else {
                                                  if (features[970] < 77099852.0) {
                                                      if (features[440] < 17155653.0) {
                                                          if (features[418] < 5388267.0) {
                                                              if (features[693] < 928445.0625) {
                                                                  return 5;
                                                              } else {
                                                                  if (features[742] < 1517508.375) {
                                                                      return 2;
                                                                  } else {
                                                                      if (features[929] < 8435663.75) {
                                                                          return 3;
                                                                      } else {
                                                                          return 7;
                                                                      }
                                                                  }
                                                              }
                                                          } else {
                                                              if (features[585] < 24827707.0) {
                                                                  return 6;
                                                              } else {
                                                                  return 6;
                                                              }
                                                          }
                                                      } else {
                                                          return 9;
                                                      }
                                                  } else {
                                                      if (features[573] < 34569561.0) {
                                                          if (features[810] < 3039148.8125) {
                                                              return 8;
                                                          } else {
                                                              return 7;
                                                          }
                                                      } else {
                                                          return 3;
                                                      }
                                                  }
                                              }
                                          } else {
                                              if (features[620] < 17001448.0) {
                                                  if (features[316] < 1337260.5) {
                                                      if (features[370] < 2584759.75) {
                                                          if (features[888] < 4197123.3125) {
                                                              return 3;
                                                          } else {
                                                              if (features[460] < 44414629.0) {
                                                                  return 6;
                                                              } else {
                                                                  return 5;
                                                              }
                                                          }
                                                      } else {
                                                          return 7;
                                                      }
                                                  } else {
                                                      return 2;
                                                  }
                                              } else {
                                                  return 4;
                                              }
                                          }
                                      }
                                  } else {
                                      if (features[423] < 10937007.5) {
                                          return 8;
                                      } else {
                                          return 6;
                                      }
                                  }
                              }
                          }
                      } else {
                          if (features[24] < 46054284.0) {
                              if (features[52] < 29822892.0) {
                                  if (features[944] < 7033988.75) {
                                      if (features[724] < 305812.8203125) {
                                          return 0;
                                      } else {
                                          if (features[664] < 7990636.25) {
                                              return 9;
                                          } else {
                                              return 7;
                                          }
                                      }
                                  } else {
                                      if (features[175] < 8705637.0) {
                                          if (features[767] < 24047492.0) {
                                              return 4;
                                          } else {
                                              return 3;
                                          }
                                      } else {
                                          return 3;
                                      }
                                  }
                              } else {
                                  if (features[545] < 76290268.0) {
                                      return 6;
                                  } else {
                                      if (features[440] < 9808291.5) {
                                          return 8;
                                      } else {
                                          if (features[980] < 187199888.0) {
                                              return 7;
                                          } else {
                                              return 3;
                                          }
                                      }
                                  }
                              }
                          } else {
                              if (features[212] < 388515.28125) {
                                  return 0;
                              } else {
                                  if (features[2] < 2044676864.0) {
                                      return 3;
                                  } else {
                                      if (features[962] < 93495932.0) {
                                          if (features[278] < 415024.078125) {
                                              return 3;
                                          } else {
                                              return 7;
                                          }
                                      } else {
                                          if (features[390] < 14926642.5) {
                                              return 4;
                                          } else {
                                              return 6;
                                          }
                                      }
                                  }
                              }
                          }
                      }
                  }
              } else {
                  if (features[1] < 539123568.0) {
                      if (features[490] < 244255396.0) {
                          return 3;
                      } else {
                          return 8;
                      }
                  } else {
                      if (features[10] < 364841776.0) {
                          if (features[225] < 1529656.875) {
                              return 3;
                          } else {
                              return 7;
                          }
                      } else {
                          return 4;
                      }
                  }
              }
          }
        }
        

int32_t DecisionTreeClassifier_predict(const float *features, int32_t features_length) {

        int32_t votes[10] = {0,};
        int32_t _class = -1;

        _class = DecisionTreeClassifier_predict_tree_0(features, features_length); votes[_class] += 1;
    
        int32_t most_voted_class = -1;
        int32_t most_voted_votes = 0;
        for (int32_t i=0; i<10; i++) {

            if (votes[i] > most_voted_votes) {
                most_voted_class = i;
                most_voted_votes = votes[i];
            }
        }
        return most_voted_class;
    }
    